tree
version=v3
num_class=1
num_tree_per_iteration=1
label_index=0
max_feature_idx=6
objective=binary sigmoid:1
feature_names=ps_reg_01 ps_reg_02 ps_reg_03 ps_car_12 ps_car_13 ps_car_14 ps_car_15
feature_infos=[0:0.90000000000000002] [0:1.8] [-1:4.0379450218999997] [0.14142135619999999:1.2649110641000001] [0.28733601139999998:3.5158025782000002] [-1:0.63166446789999997] [0:3.7416573868]
tree_sizes=2219 2284 2257 2263 2254 2271 2242 2259 2255 2260

Tree=0
num_leaves=20
num_cat=0
split_feature=4 2 4 5 2 4 2 0 4 5 3 4 2 0 6 2 3 4 3
split_gain=579.358 150.264 91.2696 43.4396 40.3481 39.6806 33.5933 26.7846 25.2853 23.5234 20.7382 20.5732 23.7395 17.1048 16.3025 19.3137 21.071 15.4964 14.8995
threshold=0.9373505390500001 0.78042453825000013 1.2239390744500003 0.35390659115000006 0.58550186060000009 0.7802177063500001 0.73972120110000017 0.55000000000000016 0.75893779075000012 0.39420804650000002 0.76154900915000001 0.78582647180000009 1.3577324798000001 0.8500000000000002 2.9142135623500005 1.3753408621000001 0.48979586525000007 1.0878095171000002 0.44570166220000002
decision_type=2 2 2 2 2 2 2 2 2 2 2 2 2 2 2 2 2 2 2
left_child=1 5 4 11 -2 13 -4 -7 -5 14 -8 12 -3 -1 15 -6 -17 -16 -19
right_child=2 3 6 8 9 7 10 -9 -10 -11 -12 -13 -14 -15 17 16 -18 18 -20
leaf_value=-3.2733312213022101 -3.2689474046904921 -3.2695044015074144 -3.2643295132845758 -3.2711429185409107 -3.2600100394917648 -3.272169554206771 -3.2587818071398424 -3.2691554289277249 -3.2686741308550573 -3.2664789987165674 -3.2092213879601674 -3.2654230893166214 -3.2641414120637111 -3.2715369571638404 -3.2645840743212178 -3.2582736753368384 -3.1941918992353289 -3.2576274838823567 -3.2648957132824434
leaf_weight=2133.9159738868475 330.71851620823145 463.56341256201267 162.58945083618164 981.88785544037819 3.9871110990643492 605.93503455072641 284.60210730135441 574.21456660330296 718.38568121194839 491.33205357939005 0.84682005643844493 335.79943654686213 100.41874502599239 707.44758881628513 384.10346393287182 0.91738839447498366 1.1643775776028631 72.614819839596748 46.116408906877041
leaf_count=60478 9373 13138 4608 27828 113 17173 8066 16274 20360 13925 24 9517 2846 20050 10886 26 33 2058 1307
internal_value=0 -0.133852 0.508925 0.0534972 0.377508 -0.254979 0.899316 -0.100849 -0.0405315 0.477625 1.10597 0.231179 0.114501 -0.318997 0.628309 2.25748 4.72632 0.608646 0.924397
internal_weight=0 6621.57 1778.99 2600.06 1330.95 4021.51 448.038 1180.15 1700.27 1000.24 285.449 899.782 563.982 2841.36 508.904 6.06888 2.08177 502.835 118.731
internal_count=238083 187664 50419 73689 37721 113975 12698 33447 48188 28348 8090 25501 15984 80528 14423 172 59 14251 3365
shrinkage=1


Tree=1
num_leaves=20
num_cat=0
split_feature=2 3 6 3 6 3 3 0 1 6 5 1 6 5 5 5 5 0 3
split_gain=316.817 135.194 94.7952 89.852 54.8133 44.2659 37.8387 27.508 27.1694 23.025 17.8032 17.1283 16.1253 16.0773 26.6894 15.0988 14.5927 13.8221 14.5816
threshold=0.7860104710000001 0.48502574785000002 3.2394512253000003 0.39993749025000008 3.2394512253000003 0.49613260315000007 0.38710458850000007 0.75000000000000011 1.3500000000000003 3.5348264453000007 0.3505709338500001 0.25000000000000006 2.5476205269500007 0.44424089355000007 0.39191833810000004 0.41874809600000013 0.35249095625000004 0.65000000000000002 0.41514092675000008
decision_type=2 2 2 2 2 2 2 2 2 2 2 2 2 2 2 2 2 2 2
left_child=3 2 8 7 11 17 15 -1 12 -9 -10 -5 -2 14 -8 -4 -14 18 -6
right_child=1 -3 6 4 5 -7 13 9 10 -11 -12 -13 16 -15 -16 -17 -18 -19 -20
leaf_value=-0.0033838636018299153 -0.0021897685038775854 0.010255994745822804 0.0014576760070952152 -0.0029205335016380149 -0.0012523764887286315 0.0088445235715197031 0.0054900352442696868 -0.0021919208530673554 0.0097224637579760437 0.0014432263160014289 0.0017536034406901912 -8.6522820089696451e-05 0.0022847569883961494 0.0092957857062255303 0.0021165456015251284 0.010035726590026082 -0.00052597508391290606 0.0026478021890457008 0.0020852553534614448
leaf_weight=2019.9669887796044 398.0371172465384 200.58731228113174 797.40892834588885 506.77897032350302 325.38894855976105 80.09689125418663 623.09956442192197 735.26701372861862 41.284441657364368 228.35931530594826 87.358363058418036 368.20816078409553 249.49509185180068 66.569287579506636 376.06116944923997 21.061361774802208 711.37811268866062 345.38826326280832 218.99097638204694
leaf_count=57410 11287 5641 22573 14390 9228 2259 17572 20877 1165 6471 2475 10450 7060 1874 10626 596 20166 9769 6194
internal_value=0 0.228013 0.180564 -0.164799 0.00868134 0.172403 0.329547 -0.272067 -0.00814507 -0.133047 0.431099 -0.172794 -0.0497267 0.453736 0.422033 0.167841 0.0203844 0.108305 0.00902727
internal_weight=0 3572.34 3371.75 4828.45 1844.85 969.865 1884.2 2983.59 1487.55 963.626 128.643 874.987 1358.91 1065.73 999.161 818.47 960.873 889.768 544.38
internal_count=238083 101035 95394 137048 52290 27450 53241 84758 42153 27348 3640 24840 38513 30072 28198 23169 27226 25191 15422
shrinkage=0.01


Tree=2
num_leaves=20
num_cat=0
split_feature=4 2 4 5 4 2 2 4 5 4 2 3 2 6 2 3 4 4 3
split_gain=556.488 144.944 85.7652 41.9087 38.821 38.3673 31.333 24.3646 22.4983 19.6575 22.8324 18.5861 16.975 15.3478 17.359 17.8671 15.3052 14.7186 14.2194
threshold=0.9373505390500001 0.78042453825000013 1.2239390744500003 0.35390659115000006 0.7802177063500001 0.58550186060000009 0.73972120110000017 0.75893779075000012 0.39420804650000002 0.78582647180000009 1.3577324798000001 0.76154900915000001 0.64006830915000013 2.9142135623500005 1.3753408621000001 0.48979586525000007 0.65778279270000017 1.0878095171000002 0.44570166220000002
decision_type=2 2 2 2 2 2 2 2 2 2 2 2 2 2 2 2 2 2 2
left_child=1 4 5 9 16 -2 -4 -5 13 10 -3 -8 -6 14 -7 -16 -1 -15 -19
right_child=2 3 6 7 12 8 11 -9 -10 -11 -12 -13 -14 17 15 -17 -18 18 -20
leaf_value=-0.0040060406720700348 0.00073496711209952541 0.0001786392045132439 0.0052227614677540449 -0.0014329349771858421 -0.0017743191562452753 0.0094314578286490841 0.010548795942714278 0.00098950922429541619 0.0031353963908658982 0.0041653385799444347 0.0054200552097588587 0.055961871959972063 0.00084476266558150526 0.0049835219222087203 0.011134445104313486 0.06892822871830262 -0.0025170260493534097 0.011720058141614706 0.0046600187665302309
leaf_weight=1199.0200554728508 331.06677421554923 464.04808774217963 164.03322875127196 980.26413270458579 823.96054224669933 4.0369812436401835 289.45379292964935 720.26801952719688 494.15805416926742 338.18078465014696 101.24268970265985 0.90402406454086204 353.68811928480864 387.19316207617521 0.929368365556002 1.2603593654930589 1627.0219862833619 73.733739268034697 46.530522923916578
leaf_count=34171 9373 13138 4608 27828 23414 113 8066 20360 13925 9517 2846 24 10033 10886 26 33 46357 2058 1307
internal_value=0 -0.131868 0.496251 0.0517792 -0.251312 0.368851 0.871647 -0.0406898 0.465873 0.225826 0.111737 1.06902 -0.0987719 0.612415 2.17285 4.43993 -0.314878 0.593268 0.898851
internal_weight=0 6607.69 1793.3 2604 4003.69 1338.91 454.391 1700.53 1007.84 903.472 565.291 290.358 1177.65 513.684 6.22671 2.18973 2826.04 507.457 120.264
internal_count=238083 187664 50419 73689 113975 37721 12698 48188 28348 25501 15984 8090 33447 14423 172 59 80528 14251 3365
shrinkage=0.01


Tree=3
num_leaves=20
num_cat=0
split_feature=4 2 4 5 4 2 2 4 5 4 2 3 2 4 6 2 3 1 4
split_gain=543.539 142.498 82.7063 40.9835 38.2851 37.2857 30.0115 23.8987 21.7646 19.1315 22.2381 16.9491 16.6669 15.1366 14.5655 15.8441 15.595 14.2204 14.1595
threshold=0.9373505390500001 0.78042453825000013 1.2239390744500003 0.35390659115000006 0.7802177063500001 0.58550186060000009 0.73972120110000017 0.75893779075000012 0.39420804650000002 0.78582647180000009 1.3577324798000001 0.76154900915000001 0.64006830915000013 0.65778279270000017 2.9142135623500005 1.3753408621000001 0.48979586525000007 0.25000000000000006 1.0878095171000002
decision_type=2 2 2 2 2 2 2 2 2 2 2 2 2 2 2 2 2 2 2
left_child=1 4 5 9 13 -2 -4 -5 14 10 -3 -8 -6 -1 15 -7 -17 -15 -16
right_child=2 3 6 7 12 8 11 -9 -10 -11 -12 -13 -14 17 18 16 -18 -19 -20
leaf_value=-0.0039808149402738007 0.00072711987089380621 0.00017682324402211244 0.005145465632062576 -0.0014205008675480997 -0.001759482012090712 0.009255590310504401 0.010341382611309083 0.00097871151406046341 0.00309499600535015 0.0041077293250992939 0.0053388577869302187 0.052609765197027814 0.00083565730600448419 -0.0032390236340614251 0.0049108577920136667 0.01090954006778432 0.064034949101370434 -0.001315945270831337 0.0088244530040108311
leaf_weight=1194.5741275548935 331.29233153909445 464.1249074973166 164.82836220785975 978.96298679709435 822.60638814419508 4.0723719410598269 292.29222270846367 720.92867170646787 495.59519065544009 339.48777582123876 101.75206028670073 0.95175710320472606 353.96513678133488 997.50038072839379 388.98400019854307 0.93899339810013793 1.3426651731133459 625.72869380563498 121.26929379999638
leaf_count=34171 9373 13138 4608 27828 23414 113 8066 20360 13925 9517 2846 24 10033 28501 10886 26 33 17856 3365
internal_value=0 -0.130712 0.489016 0.0512347 -0.249383 0.363905 0.855956 -0.0402988 0.459212 0.223096 0.110502 1.04786 -0.0978748 -0.312645 0.602836 2.10754 4.21717 -0.249771 0.584098
internal_weight=0 6599.63 1801.57 2605.26 3994.37 1343.49 458.072 1699.89 1012.2 905.365 565.877 293.244 1176.57 2817.8 516.607 6.35403 2.28166 1623.23 510.253
internal_count=238083 187664 50419 73689 113975 37721 12698 48188 28348 25501 15984 8090 33447 80528 14423 172 59 46357 14251
shrinkage=0.01


Tree=4
num_leaves=20
num_cat=0
split_feature=4 2 4 2 5 4 5 2 4 6 2 3 4 2 2 4 5 4 3
split_gain=530.923 140.091 80.193 41.4249 40.0797 37.7548 25.0193 24.8048 23.4416 22.0948 22.3954 23.8956 18.6212 21.6612 16.3642 15.739 15.2436 14.9689 14.426
threshold=0.9373505390500001 0.78042453825000013 1.3221767442000003 0.6607287220000001 0.35390659115000006 0.7802177063500001 0.38878013820000007 0.74519289855000015 0.75893779075000012 2.9142135623500005 1.1422291720000002 0.48979586525000007 0.78582647180000009 1.3577324798000001 0.64006830915000013 1.0878095171000002 0.38736287360000005 0.65778279270000017 0.76154900915000001
decision_type=2 2 2 2 2 2 2 2 2 2 2 2 2 2 2 2 2 2 2
left_child=1 5 3 -2 12 17 9 -4 -6 10 -5 -12 13 -3 -7 -11 -17 -1 -9
right_child=2 4 7 6 8 14 -8 18 -10 15 11 -13 -14 -15 -16 16 -18 -19 -20
leaf_value=-0.0039556599227308642 0.0014626493003159421 0.00017502615314307055 0.0056919528619068238 0.0053089436247049414 -0.0014081580269493933 -0.0017447455870947559 0.0035241482568399724 0.011517309101223505 0.00096804193238033786 0.0052225186197690414 0.0085479076782343424 0.068659058033193152 0.0040511384068810689 0.0052592845492954714 0.00082665673980455534 0.0088149036273938927 0.043092658706692821 -0.0024784974483410306 0.049623203525497699
leaf_weight=1190.1711734831333 481.19992731139064 464.20095901936293 106.34205278754234 2.5474379062652579 977.67469712346792 821.26559973880649 537.72279826179147 190.29909496754408 721.58263640850782 337.60491910949349 1.0558980070054533 1.7696590088307855 340.7812534160912 102.25609621405602 354.23936126753688 148.89582146331668 1.3087699189782132 1619.4738247729838 0.99870094656944164
leaf_count=34171 13554 13138 2956 70 27828 23414 15015 5199 20360 9402 29 43 9517 2846 10033 4091 36 46357 24
internal_value=0 -0.129565 0.48192 0.388527 0.0506962 -0.247465 0.501609 0.956386 -0.0399114 0.664278 2.68106 4.61958 0.220404 0.109283 -0.0969851 0.642064 0.911357 -0.310423 1.17162
internal_weight=0 6591.65 1809.75 1512.11 2606.5 3985.15 1030.91 297.64 1699.26 493.183 5.37299 2.82556 907.238 566.457 1175.5 487.81 150.205 2809.64 191.298
internal_count=238083 187664 50419 42240 73689 113975 28686 8179 48188 13671 142 72 25501 15984 33447 13529 4127 80528 5223
shrinkage=0.01


Tree=5
num_leaves=20
num_cat=0
split_feature=4 2 4 4 2 2 4 0 5 5 6 3 4 5 6 4 0 5 2
split_gain=493.522 142.417 81.565 69.4907 50.061 26.6573 26.1684 21.9011 20.2742 20.2482 25.4448 18.3135 17.5971 17.5707 17.2405 15.8506 15.6265 14.9617 13.1184
threshold=0.9373505390500001 0.64006830915000013 1.3534276961500005 0.79352363020000005 0.9583514352000001 0.8723172977000001 0.61492289330000005 0.55000000000000016 0.39420804650000002 0.36667423600000004 2.5476205269500007 0.77045086915000016 0.60717133045000005 0.36653784980000004 3.6736043311500004 1.0222018852000001 0.8500000000000002 0.41659332255000009 1.0441802898000001
decision_type=2 2 2 2 2 2 2 2 2 2 2 2 2 2 2 2 2 2 2
left_child=1 6 4 5 7 -3 -1 -2 15 10 -5 -4 -7 -14 -12 -6 -8 -15 -17
right_child=2 3 11 9 8 12 16 -9 -10 -11 14 -13 13 17 -16 18 -18 -19 -20
leaf_value=-0.0050814636992130907 0.00050646331428855522 -0.0019205747882164179 0.0095428147318213172 0.03239941941340993 0.0050681110438241762 -0.0023688651344958424 -0.0029575900221148867 0.0036319338960399284 0.0040634769705455648 0.00089117255741937571 0.0045009046206147003 0.049099771616922548 0.0019900645649836395 -0.0011074555770624343 0.00022492330167556791 0.016502018106235781 -0.0008491602253189915 0.0044263754475426511 0.0085002882392337074
leaf_weight=498.87545686215162 412.2712949514389 1336.368903838098 265.30001927167177 3.038446716964244 141.67179698497057 238.43954569473863 1821.3162015601993 491.46861183270812 323.14070992916822 691.91035320609808 356.69569628313184 1.1755646131932724 505.17098625004292 510.17244943603873 128.17655999585986 23.423344299197197 435.58249006047845 54.031677160412073 163.53334433957934
leaf_count=14378 11566 38236 7227 85 3921 6773 52241 13694 8979 19525 9975 29 14256 14507 3587 642 12453 1533 4476
internal_value=0 -0.127576 0.460537 -0.00268292 0.372963 -0.0927293 -0.300881 0.220615 0.584209 0.199127 0.355132 0.971732 0.00876752 0.0635412 0.337054 0.759101 -0.255066 -0.0577502 0.950281
internal_weight=0 6579.78 1821.98 3824 1555.51 2644.18 2755.77 903.74 651.769 1179.82 487.911 266.476 1307.81 1069.38 484.872 328.628 2256.9 564.204 186.957
internal_count=238083 187549 50534 108477 43278 75305 79072 25260 18018 33172 13647 7256 37069 30296 13562 9039 64694 16040 5118
shrinkage=0.01


Tree=6
num_leaves=20
num_cat=0
split_feature=4 2 4 4 2 1 4 0 3 1 0 4 4 2 2 4 6 2 3
split_gain=482.194 140.144 78.6089 68.0412 48.5285 34.056 25.9038 21.3388 16.8484 15.4629 15.4067 14.3227 19.6842 12.2737 15.8452 12.134 11.9721 11.8491 16.1683
threshold=0.9373505390500001 0.64006830915000013 1.3534276961500005 0.79352363020000005 0.9583514352000001 0.55000000000000016 0.61492289330000005 0.55000000000000016 0.77045086915000016 1.0500000000000003 0.8500000000000002 1.1141436692500004 1.0878095171000002 1.5611494131000001 1.3015615566000001 0.60717133045000005 2.5476205269500007 1.2713181897500003 0.38710458850000007
decision_type=2 2 2 2 2 2 2 2 2 2 2 2 2 2 2 2 2 2 2
left_child=1 6 4 5 7 -3 -1 -2 -4 -9 -8 12 -11 14 17 -7 -5 -6 -19
right_child=2 3 8 16 13 15 10 9 -10 11 -12 -13 -14 -15 -16 -17 -18 18 -20
leaf_value=-0.0050545523342956132 0.00050116247538097827 -0.0017927895818467961 0.0093640939754374968 0.010323835791467227 0.005753658329147141 -0.0018031535491954524 -0.0029360997062679475 0.0032255787050671884 0.046468107025836404 0.016047102289302333 -0.00084133414253234108 0.0021013117123435707 0.068812918696991937 0.0083627080782667923 0.0026386168282100282 0.0010793558983256562 0.0018464637930692032 0.042403502965613529 0.010619477948140799
leaf_weight=496.52804953977466 412.46467002481222 1658.9401162751019 267.64788756519556 16.900599211454391 306.57308112829924 178.42341897264123 1816.3255317732692 473.76847107335925 1.2294372022151936 10.592200856655836 435.23958065733314 8.0048121064901334 0.7575530558824547 141.28536708652973 179.56205618008971 804.54924345389009 1165.1000500321388 1.7047006413340593 26.175253137946129
leaf_count=14378 11566 47436 7227 473 8436 5081 52241 13157 29 295 12453 221 21 3879 4936 22788 32699 47 720
internal_value=0 -0.126453 0.453977 -0.0026587 0.367951 -0.0918827 -0.29871 0.217959 0.953375 0.358349 -0.253117 1.23446 1.9569 0.575231 0.50348 0.055614 0.196768 0.632127 1.25629
internal_weight=0 6572.01 1829.77 3823.91 1560.89 2641.91 2748.09 905.588 268.877 493.123 2251.57 19.3546 11.3498 655.3 514.015 982.973 1182 334.453 27.88
internal_count=238083 187549 50534 108477 43278 75305 79072 25260 7256 13694 64694 537 316 18018 14139 27869 33172 9203 767
shrinkage=0.01


Tree=7
num_leaves=20
num_cat=0
split_feature=4 2 4 4 2 1 4 1 5 6 5 6 3 4 4 4 5 6 5
split_gain=471.148 137.905 75.7831 66.6237 47.051 33.4453 25.6403 20.3633 19.7106 23.6184 19.4097 16.7419 15.5482 15.1419 13.6922 13.5004 13.2797 23.906 29.3398
threshold=0.9373505390500001 0.64006830915000013 1.3534276961500005 0.79352363020000005 0.9583514352000001 0.55000000000000016 0.61492289330000005 1.0500000000000003 0.36667423600000004 2.5476205269500007 0.39420804650000002 3.6736043311500004 0.77045086915000016 1.0222018852000001 0.81594042730000016 1.0795877979000001 0.41659332255000009 3.5348264453000007 0.43005813170000001
decision_type=2 2 2 2 2 2 2 2 2 2 2 2 2 2 2 2 2 2 2
left_child=1 6 4 5 7 16 -1 15 9 -5 13 -11 -4 -6 -8 -2 -3 -18 -19
right_child=2 3 12 8 10 -7 14 -9 -10 11 -12 -13 -14 -15 -16 -17 17 18 -20
leaf_value=-0.0050276664701296202 0.00097064914668037756 -0.0019672154312268372 0.0091903053749234406 0.030726152987035064 0.0049080014902288926 0.00055028731587296027 -0.0029686426141137352 0.011995554956614344 0.00085974671036838065 0.0044112538767930032 0.0039304234180327757 0.0002037982867304687 0.044092186880306576 0.0092167738085347055 -0.0011775643932939249 0.0035198056453029148 0.0011659930836731844 0.084086231173845005 0.012740516532697267
leaf_weight=494.20310897007585 554.71455692872405 1585.2726783156395 269.97020703181624 3.1608188375830641 143.1142490208149 983.4797096028924 1673.3129831366241 20.545634496957064 693.77591471746564 358.79725182428956 326.05699581280351 128.42257226258516 1.2824513278901566 189.62435241043568 572.97057833895087 332.15829011425376 67.575560342520475 0.74100333452224676 2.5947346240282059
leaf_count=14378 15483 45410 7227 85 3921 27869 48257 564 19525 9975 8979 3587 29 5118 16437 9213 1932 21 73
internal_value=0 -0.125338 0.447537 -0.0026337 0.363022 -0.0910426 -0.296548 0.215339 0.194443 0.347901 0.566438 0.330224 0.935532 0.736353 -0.251178 0.192538 -0.177783 0.245601 2.85893
internal_weight=0 6564.31 1837.47 3823.82 1566.21 2639.66 2740.49 907.418 1184.16 490.381 658.796 487.22 271.253 332.739 2246.28 886.873 1656.18 70.9113 3.33574
internal_count=238083 187549 50534 108477 43278 75305 79072 25260 33172 13647 18018 13562 7256 9039 64694 24696 47436 2026 94
shrinkage=0.01


Tree=8
num_leaves=20
num_cat=0
split_feature=4 2 4 4 2 1 4 0 0 3 1 4 4 4 2 2 3 6 2
split_gain=460.383 135.696 73.0793 65.2361 45.6258 32.8457 25.3781 20.7129 15.2287 14.3887 14.2796 13.4467 17.2974 11.8884 11.7259 15.2631 11.646 11.3624 11.2834
threshold=0.9373505390500001 0.64006830915000013 1.3534276961500005 0.79352363020000005 0.9583514352000001 0.55000000000000016 0.61492289330000005 0.55000000000000016 0.8500000000000002 0.77045086915000016 1.0500000000000003 1.1141436692500004 1.0878095171000002 0.60717133045000005 1.5611494131000001 1.3015615566000001 0.5873515839000002 2.5476205269500007 1.2713181897500003
decision_type=2 2 2 2 2 2 2 2 2 2 2 2 2 2 2 2 2 2 2
left_child=1 6 4 5 7 -3 -1 -2 16 -4 -9 12 -12 -7 15 18 -8 -5 -6
right_child=2 3 9 17 14 13 8 10 -10 -11 11 -13 -14 -15 -16 -17 -18 -19 -20
leaf_value=-0.0050008072409517016 0.0004747147360718989 -0.0017629877759629403 0.0090212530446068979 0.0099985122342871567 0.0055812478757879007 -0.0017927133658529046 -0.0029220339176307926 0.0031597441619218296 -0.00081012937409343508 0.041936111778763455 0.015359646264045092 0.0019340584951590993 0.063093365823446643 0.0010614430202839926 0.008112169274216206 0.0025354388361855714 0.022257523784606832 0.0018028966154651704 0.012171932008689705
leaf_weight=491.90048209950328 413.43196295574307 1653.4575039148331 272.26728889346123 17.164674375206232 309.79503690823913 178.21628337353468 1805.3376420587301 476.00088765099645 433.87732632085681 1.3346298411488522 10.870364271104336 8.1097835414111596 0.8161533325910576 805.76509886607528 143.15435670688748 180.9488039650023 1.8387505188584317 1169.1267294026911 28.353871829807758
leaf_count=14378 11566 47436 7227 473 8436 5081 52188 13157 12453 29 295 221 21 22788 3879 4936 53 32699 767
internal_value=0 -0.124233 0.441219 -0.00261019 0.358177 -0.0902103 -0.294397 0.212757 -0.24925 0.918181 0.350584 1.18276 1.86932 0.0544505 0.55783 0.487952 -0.289641 0.192148 0.613388
internal_weight=0 6556.68 1845.08 3823.73 1571.48 2637.44 2732.95 909.229 2241.05 273.602 495.797 19.7963 11.6865 983.981 662.252 519.098 1807.18 1186.29 338.149
internal_count=238083 187549 50534 108477 43278 75305 79072 25260 64694 7256 13694 537 316 27869 18018 14139 52241 33172 9203
shrinkage=0.01


Tree=9
num_leaves=20
num_cat=0
split_feature=4 2 4 4 2 1 4 0 5 6 5 6 0 4 1 5 6 5 0
split_gain=449.885 133.519 70.4923 63.8787 44.2508 32.2557 25.117 20.185 19.1905 21.9675 18.6208 16.2611 15.0123 14.4633 13.7527 13.0502 22.7556 25.5944 18.4318
threshold=0.9373505390500001 0.64006830915000013 1.3534276961500005 0.79352363020000005 0.9583514352000001 0.55000000000000016 0.61492289330000005 0.55000000000000016 0.36667423600000004 2.5476205269500007 0.39420804650000002 3.6736043311500004 0.8500000000000002 1.0222018852000001 1.0500000000000003 0.41659332255000009 3.5348264453000007 0.43005813170000001 0.8500000000000002
decision_type=2 2 2 2 2 2 2 2 2 2 2 2 2 2 2 2 2 2 2
left_child=1 6 4 5 7 15 -1 -2 9 -5 13 -11 -8 -6 -9 -3 -17 -18 -19
right_child=2 3 -4 8 10 -7 12 14 -10 11 -12 -13 -14 -15 -16 16 17 18 -20
leaf_value=-0.0049739755160647129 0.00046975995815338366 -0.0019366680072097754 0.0090130396140409141 0.029195218702697728 0.0047565791032588489 0.00053878120414081949 -0.0028752119415251325 0.0031189741852598895 0.00082926072408915166 0.004324006298583081 0.003801697542293678 0.00018337190219264892 -0.00080263433024356599 0.0089437507336720869 0.011580319128858292 0.0011726103140661962 0.077136146489863514 -0.0049246086970246563 0.052851725329620659
leaf_weight=489.61997291073203 413.61367888376117 1579.7964377216995 275.92541783675551 3.2816369011998168 144.50488583743572 984.47821551933885 1802.3241169154644 477.39369704946876 695.59488391876221 360.86567318439484 328.92726141959429 128.66131265088916 433.55135671421885 192.24091831967235 20.014555778354406 67.538155727088451 0.79955174773931459 1.8305944949388506 0.79064458236098267
leaf_count=14378 11566 45410 7256 85 3921 27869 52241 13157 19525 9975 8979 3587 12453 5118 537 1932 21 51 22
internal_value=0 -0.123135 0.435014 -0.00258562 0.353413 -0.0893841 -0.292255 0.210209 0.189886 0.34086 0.549397 0.323573 -0.247333 0.714695 0.345944 -0.174823 0.244708 2.76095 1.25025
internal_weight=0 6549.13 1852.62 3823.64 1576.69 2635.23 2725.5 911.022 1188.4 492.809 665.673 489.527 2235.88 336.746 497.408 1650.76 70.9589 3.42079 2.62124
internal_count=238083 187549 50534 108477 43278 75305 79072 25260 33172 13647 18018 13562 64694 9039 13694 47436 2026 94 73
shrinkage=0.01


end of trees

feature importances:
ps_car_13=59
ps_reg_03=42
ps_car_14=26
ps_car_12=21
ps_car_15=18
ps_reg_01=13
ps_reg_02=11

parameters:
[boosting: gbdt]
[objective: binary]
[metric: binary_logloss]
[tree_learner: serial]
[device_type: cpu]
[data: ]
[valid: ]
[num_iterations: 100]
[learning_rate: 0.01]
[num_leaves: 20]
[num_threads: 0]
[max_depth: -1]
[min_data_in_leaf: 20]
[min_sum_hessian_in_leaf: 0.001]
[bagging_fraction: 0.8]
[pos_bagging_fraction: 1]
[neg_bagging_fraction: 1]
[bagging_freq: 5]
[bagging_seed: 3]
[feature_fraction: 0.9]
[feature_fraction_bynode: 1]
[feature_fraction_seed: 2]
[early_stopping_round: 0]
[first_metric_only: 0]
[max_delta_step: 0]
[lambda_l1: 0]
[lambda_l2: 0]
[min_gain_to_split: 0]
[drop_rate: 0.1]
[max_drop: 50]
[skip_drop: 0.5]
[xgboost_dart_mode: 0]
[uniform_drop: 0]
[drop_seed: 4]
[top_rate: 0.2]
[other_rate: 0.1]
[min_data_per_group: 100]
[max_cat_threshold: 32]
[cat_l2: 10]
[cat_smooth: 10]
[max_cat_to_onehot: 4]
[top_k: 20]
[monotone_constraints: ]
[feature_contri: ]
[forcedsplits_filename: ]
[forcedbins_filename: ]
[refit_decay_rate: 0.9]
[cegb_tradeoff: 1]
[cegb_penalty_split: 0]
[cegb_penalty_feature_lazy: ]
[cegb_penalty_feature_coupled: ]
[verbosity: 0]
[max_bin: 255]
[max_bin_by_feature: ]
[min_data_in_bin: 3]
[bin_construct_sample_cnt: 200000]
[histogram_pool_size: -1]
[data_random_seed: 1]
[output_model: LightGBM_model.txt]
[snapshot_freq: -1]
[input_model: ]
[output_result: LightGBM_predict_result.txt]
[initscore_filename: ]
[valid_data_initscores: ]
[pre_partition: 0]
[enable_bundle: 1]
[max_conflict_rate: 0]
[is_enable_sparse: 1]
[sparse_threshold: 0.8]
[use_missing: 1]
[zero_as_missing: 0]
[two_round: 0]
[save_binary: 0]
[header: 0]
[label_column: ]
[weight_column: ]
[group_column: ]
[ignore_column: ]
[categorical_feature: ]
[predict_raw_score: 0]
[predict_leaf_index: 0]
[predict_contrib: 0]
[num_iteration_predict: -1]
[pred_early_stop: 0]
[pred_early_stop_freq: 10]
[pred_early_stop_margin: 10]
[convert_model_language: ]
[convert_model: gbdt_prediction.cpp]
[num_class: 1]
[is_unbalance: 0]
[scale_pos_weight: 1]
[sigmoid: 1]
[boost_from_average: 1]
[reg_sqrt: 0]
[alpha: 0.9]
[fair_c: 1]
[poisson_max_delta_step: 0.7]
[tweedie_variance_power: 1.5]
[max_position: 20]
[lambdamart_norm: 1]
[label_gain: ]
[metric_freq: 1]
[is_provide_training_metric: 0]
[eval_at: ]
[multi_error_top_k: 1]
[num_machines: 1]
[local_listen_port: 12400]
[time_out: 120]
[machine_list_filename: ]
[machines: ]
[gpu_platform_id: -1]
[gpu_device_id: -1]
[gpu_use_dp: 0]

end of parameters

pandas_categorical:[]
